#pragma once
#include <cstdarg>
namespace Eloquent {
    namespace ML {
        namespace Port {
            class DecisionTreeRegressor {
                public:
                    /**
                    * Predict class for features vector
                    */
                    float predict(float *x) {
                        if (x[0] <= 24.550000190734863) {
                            if (x[0] <= 22.34999942779541) {
                                if (x[1] <= 64.29999923706055) {
                                    if (x[1] <= 57.04999923706055) {
                                        if (x[1] <= 43.79999923706055) {
                                            if (x[0] <= 22.0) {
                                                if (x[0] <= 20.699999809265137) {
                                                    return -0.59f;
                                                }

                                                else {
                                                    if (x[0] <= 21.300000190734863) {
                                                        return -1.06f;
                                                    }

                                                    else {
                                                        if (x[1] <= 35.60000038146973) {
                                                            return -0.97f;
                                                        }

                                                        else {
                                                            return -1.01f;
                                                        }
                                                    }
                                                }
                                            }

                                            else {
                                                if (x[1] <= 36.20000076293945) {
                                                    return -0.11f;
                                                }

                                                else {
                                                    if (x[0] <= 22.15000057220459) {
                                                        return -0.59f;
                                                    }

                                                    else {
                                                        if (x[1] <= 36.5) {
                                                            return -0.84f;
                                                        }

                                                        else {
                                                            return -0.77f;
                                                        }
                                                    }
                                                }
                                            }
                                        }

                                        else {
                                            if (x[1] <= 47.39999961853027) {
                                                if (x[1] <= 46.25) {
                                                    if (x[1] <= 45.25) {
                                                        if (x[0] <= 21.800000190734863) {
                                                            if (x[0] <= 21.40000057220459) {
                                                                return 0.03f;
                                                            }

                                                            else {
                                                                return -0.1f;
                                                            }
                                                        }

                                                        else {
                                                            return 0.14f;
                                                        }
                                                    }

                                                    else {
                                                        if (x[0] <= 21.84999942779541) {
                                                            if (x[1] <= 45.85000038146973) {
                                                                return -0.79f;
                                                            }

                                                            else {
                                                                if (x[0] <= 21.59999942779541) {
                                                                    return -0.55f;
                                                                }

                                                                else {
                                                                    return -0.78f;
                                                                }
                                                            }
                                                        }

                                                        else {
                                                            if (x[1] <= 45.79999923706055) {
                                                                if (x[0] <= 22.25) {
                                                                    return -0.4f;
                                                                }

                                                                else {
                                                                    return -0.86f;
                                                                }
                                                            }

                                                            else {
                                                                if (x[0] <= 22.050000190734863) {
                                                                    return 0.155f;
                                                                }

                                                                else {
                                                                    return -0.22f;
                                                                }
                                                            }
                                                        }
                                                    }
                                                }

                                                else {
                                                    if (x[0] <= 21.65000057220459) {
                                                        if (x[0] <= 21.25) {
                                                            return -0.1f;
                                                        }

                                                        else {
                                                            if (x[0] <= 21.550000190734863) {
                                                                return -0.14500000000000002f;
                                                            }

                                                            else {
                                                                return -0.12f;
                                                            }
                                                        }
                                                    }

                                                    else {
                                                        if (x[0] <= 21.90000057220459) {
                                                            return 0.44f;
                                                        }

                                                        else {
                                                            if (x[0] <= 22.199999809265137) {
                                                                return 0.1f;
                                                            }

                                                            else {
                                                                return 0.065f;
                                                            }
                                                        }
                                                    }
                                                }
                                            }

                                            else {
                                                if (x[1] <= 48.89999961853027) {
                                                    if (x[0] <= 22.100000381469727) {
                                                        if (x[0] <= 21.84999942779541) {
                                                            if (x[0] <= 21.699999809265137) {
                                                                if (x[1] <= 48.25) {
                                                                    if (x[0] <= 21.0) {
                                                                        return -0.99f;
                                                                    }

                                                                    else {
                                                                        return -0.9f;
                                                                    }
                                                                }

                                                                else {
                                                                    return -0.66f;
                                                                }
                                                            }

                                                            else {
                                                                return -0.51f;
                                                            }
                                                        }

                                                        else {
                                                            if (x[1] <= 48.75) {
                                                                return -0.91f;
                                                            }

                                                            else {
                                                                return -1.07f;
                                                            }
                                                        }
                                                    }

                                                    else {
                                                        if (x[1] <= 48.04999923706055) {
                                                            if (x[0] <= 22.25) {
                                                                return -0.065f;
                                                            }

                                                            else {
                                                                return -0.32f;
                                                            }
                                                        }

                                                        else {
                                                            return -0.7f;
                                                        }
                                                    }
                                                }

                                                else {
                                                    if (x[0] <= 20.84999942779541) {
                                                        if (x[0] <= 19.699999809265137) {
                                                            return -0.14500000000000002f;
                                                        }

                                                        else {
                                                            if (x[0] <= 20.549999237060547) {
                                                                if (x[1] <= 51.5) {
                                                                    return 0.09f;
                                                                }

                                                                else {
                                                                    return 0.19f;
                                                                }
                                                            }

                                                            else {
                                                                return 0.26f;
                                                            }
                                                        }
                                                    }

                                                    else {
                                                        if (x[0] <= 21.75) {
                                                            if (x[1] <= 52.55000114440918) {
                                                                if (x[1] <= 51.60000038146973) {
                                                                    if (x[1] <= 49.39999961853027) {
                                                                        if (x[0] <= 21.450000762939453) {
                                                                            if (x[0] <= 21.15000057220459) {
                                                                                if (x[0] <= 21.050000190734863) {
                                                                                    if (x[0] <= 20.949999809265137) {
                                                                                        return -0.3f;
                                                                                    }

                                                                                    else {
                                                                                        return -0.35f;
                                                                                    }
                                                                                }

                                                                                else {
                                                                                    return -0.48f;
                                                                                }
                                                                            }

                                                                            else {
                                                                                return 0.02f;
                                                                            }
                                                                        }

                                                                        else {
                                                                            return -0.59f;
                                                                        }
                                                                    }

                                                                    else {
                                                                        if (x[1] <= 49.89999961853027) {
                                                                            return -1.05f;
                                                                        }

                                                                        else {
                                                                            if (x[0] <= 21.050000190734863) {
                                                                                return -0.98f;
                                                                            }

                                                                            else {
                                                                                if (x[0] <= 21.65000057220459) {
                                                                                    if (x[1] <= 50.5) {
                                                                                        if (x[0] <= 21.350000381469727) {
                                                                                            return -0.3f;
                                                                                        }

                                                                                        else {
                                                                                            return -0.01f;
                                                                                        }
                                                                                    }

                                                                                    else {
                                                                                        if (x[0] <= 21.550000190734863) {
                                                                                            return -0.5800000000000001f;
                                                                                        }

                                                                                        else {
                                                                                            return -0.31f;
                                                                                        }
                                                                                    }
                                                                                }

                                                                                else {
                                                                                    return -0.83f;
                                                                                }
                                                                            }
                                                                        }
                                                                    }
                                                                }

                                                                else {
                                                                    return 0.2f;
                                                                }
                                                            }

                                                            else {
                                                                if (x[1] <= 56.35000038146973) {
                                                                    if (x[0] <= 21.149999618530273) {
                                                                        return -1.05f;
                                                                    }

                                                                    else {
                                                                        if (x[1] <= 53.25) {
                                                                            if (x[1] <= 52.95000076293945) {
                                                                                return -0.88f;
                                                                            }

                                                                            else {
                                                                                return -0.99f;
                                                                            }
                                                                        }

                                                                        else {
                                                                            if (x[0] <= 21.65000057220459) {
                                                                                if (x[0] <= 21.449999809265137) {
                                                                                    return -0.51f;
                                                                                }

                                                                                else {
                                                                                    return -0.6f;
                                                                                }
                                                                            }

                                                                            else {
                                                                                if (x[1] <= 53.79999923706055) {
                                                                                    return -0.6f;
                                                                                }

                                                                                else {
                                                                                    return -0.91f;
                                                                                }
                                                                            }
                                                                        }
                                                                    }
                                                                }

                                                                else {
                                                                    if (x[1] <= 56.85000038146973) {
                                                                        return -0.39f;
                                                                    }

                                                                    else {
                                                                        return -0.38f;
                                                                    }
                                                                }
                                                            }
                                                        }

                                                        else {
                                                            if (x[1] <= 56.95000076293945) {
                                                                if (x[1] <= 56.35000038146973) {
                                                                    if (x[1] <= 49.64999961853027) {
                                                                        if (x[0] <= 21.949999809265137) {
                                                                            if (x[0] <= 21.84999942779541) {
                                                                                return -0.6f;
                                                                            }

                                                                            else {
                                                                                return -0.14f;
                                                                            }
                                                                        }

                                                                        else {
                                                                            if (x[0] <= 22.050000190734863) {
                                                                                return -1.04f;
                                                                            }

                                                                            else {
                                                                                if (x[0] <= 22.15000057220459) {
                                                                                    if (x[1] <= 49.29999923706055) {
                                                                                        return -0.47f;
                                                                                    }

                                                                                    else {
                                                                                        return -0.5f;
                                                                                    }
                                                                                }

                                                                                else {
                                                                                    return -0.4f;
                                                                                }
                                                                            }
                                                                        }
                                                                    }

                                                                    else {
                                                                        if (x[0] <= 22.050000190734863) {
                                                                            if (x[1] <= 52.54999923706055) {
                                                                                if (x[1] <= 50.5) {
                                                                                    if (x[1] <= 49.85000038146973) {
                                                                                        return 0.0f;
                                                                                    }

                                                                                    else {
                                                                                        if (x[0] <= 21.949999809265137) {
                                                                                            return -0.59f;
                                                                                        }

                                                                                        else {
                                                                                            return -0.45f;
                                                                                        }
                                                                                    }
                                                                                }

                                                                                else {
                                                                                    if (x[1] <= 51.04999923706055) {
                                                                                        return 0.34f;
                                                                                    }

                                                                                    else {
                                                                                        if (x[1] <= 51.54999923706055) {
                                                                                            return -0.5f;
                                                                                        }

                                                                                        else {
                                                                                            if (x[1] <= 52.04999923706055) {
                                                                                                if (x[0] <= 21.84999942779541) {
                                                                                                    return -0.02f;
                                                                                                }

                                                                                                else {
                                                                                                    if (x[0] <= 21.949999809265137) {
                                                                                                        return -0.325f;
                                                                                                    }

                                                                                                    else {
                                                                                                        return -0.12333333333333334f;
                                                                                                    }
                                                                                                }
                                                                                            }

                                                                                            else {
                                                                                                return 0.0f;
                                                                                            }
                                                                                        }
                                                                                    }
                                                                                }
                                                                            }

                                                                            else {
                                                                                if (x[1] <= 55.29999923706055) {
                                                                                    if (x[1] <= 53.85000038146973) {
                                                                                        if (x[1] <= 53.20000076293945) {
                                                                                            return -0.27f;
                                                                                        }

                                                                                        else {
                                                                                            return -0.3f;
                                                                                        }
                                                                                    }

                                                                                    else {
                                                                                        if (x[1] <= 54.64999961853027) {
                                                                                            return -0.72f;
                                                                                        }

                                                                                        else {
                                                                                            if (x[0] <= 21.899999618530273) {
                                                                                                return -0.42f;
                                                                                            }

                                                                                            else {
                                                                                                return -0.28f;
                                                                                            }
                                                                                        }
                                                                                    }
                                                                                }

                                                                                else {
                                                                                    if (x[1] <= 56.04999923706055) {
                                                                                        if (x[0] <= 21.949999809265137) {
                                                                                            return -0.05f;
                                                                                        }

                                                                                        else {
                                                                                            return -0.2f;
                                                                                        }
                                                                                    }

                                                                                    else {
                                                                                        return -0.42f;
                                                                                    }
                                                                                }
                                                                            }
                                                                        }

                                                                        else {
                                                                            if (x[1] <= 53.89999961853027) {
                                                                                if (x[0] <= 22.25) {
                                                                                    if (x[1] <= 52.0) {
                                                                                        if (x[0] <= 22.15000057220459) {
                                                                                            return -0.7f;
                                                                                        }

                                                                                        else {
                                                                                            return -0.8f;
                                                                                        }
                                                                                    }

                                                                                    else {
                                                                                        if (x[1] <= 53.39999961853027) {
                                                                                            return -0.6499999999999999f;
                                                                                        }

                                                                                        else {
                                                                                            return -0.65f;
                                                                                        }
                                                                                    }
                                                                                }

                                                                                else {
                                                                                    if (x[1] <= 51.5) {
                                                                                        if (x[1] <= 50.45000076293945) {
                                                                                            return -0.38f;
                                                                                        }

                                                                                        else {
                                                                                            return -0.09f;
                                                                                        }
                                                                                    }

                                                                                    else {
                                                                                        if (x[1] <= 52.5) {
                                                                                            return -0.33f;
                                                                                        }

                                                                                        else {
                                                                                            return -0.41333333333333333f;
                                                                                        }
                                                                                    }
                                                                                }
                                                                            }

                                                                            else {
                                                                                if (x[1] <= 54.25) {
                                                                                    if (x[0] <= 22.199999809265137) {
                                                                                        return -0.08f;
                                                                                    }

                                                                                    else {
                                                                                        return -0.07f;
                                                                                    }
                                                                                }

                                                                                else {
                                                                                    if (x[1] <= 54.79999923706055) {
                                                                                        if (x[0] <= 22.25) {
                                                                                            return -0.28f;
                                                                                        }

                                                                                        else {
                                                                                            return -0.295f;
                                                                                        }
                                                                                    }

                                                                                    else {
                                                                                        return -0.12f;
                                                                                    }
                                                                                }
                                                                            }
                                                                        }
                                                                    }
                                                                }

                                                                else {
                                                                    if (x[1] <= 56.85000038146973) {
                                                                        if (x[0] <= 21.899999618530273) {
                                                                            return -0.8f;
                                                                        }

                                                                        else {
                                                                            if (x[0] <= 22.100000381469727) {
                                                                                return -0.63f;
                                                                            }

                                                                            else {
                                                                                return -0.58f;
                                                                            }
                                                                        }
                                                                    }

                                                                    else {
                                                                        return -1.03f;
                                                                    }
                                                                }
                                                            }

                                                            else {
                                                                if (x[0] <= 21.84999942779541) {
                                                                    return 0.87f;
                                                                }

                                                                else {
                                                                    if (x[0] <= 22.100000381469727) {
                                                                        if (x[0] <= 21.949999809265137) {
                                                                            return -0.3633333333333333f;
                                                                        }

                                                                        else {
                                                                            return -0.21f;
                                                                        }
                                                                    }

                                                                    else {
                                                                        return -0.53f;
                                                                    }
                                                                }
                                                            }
                                                        }
                                                    }
                                                }
                                            }
                                        }
                                    }

                                    else {
                                        if (x[0] <= 22.050000190734863) {
                                            if (x[1] <= 62.64999961853027) {
                                                if (x[1] <= 61.30000114440918) {
                                                    if (x[1] <= 61.14999961853027) {
                                                        if (x[0] <= 21.25) {
                                                            if (x[1] <= 57.69999885559082) {
                                                                return 0.0f;
                                                            }

                                                            else {
                                                                if (x[0] <= 21.050000190734863) {
                                                                    if (x[0] <= 20.75) {
                                                                        return -0.7f;
                                                                    }

                                                                    else {
                                                                        return -0.6f;
                                                                    }
                                                                }

                                                                else {
                                                                    return -0.395f;
                                                                }
                                                            }
                                                        }

                                                        else {
                                                            if (x[1] <= 58.95000076293945) {
                                                                if (x[1] <= 58.39999961853027) {
                                                                    if (x[1] <= 57.95000076293945) {
                                                                        if (x[0] <= 21.449999809265137) {
                                                                            return -0.5f;
                                                                        }

                                                                        else {
                                                                            if (x[0] <= 21.949999809265137) {
                                                                                if (x[0] <= 21.75) {
                                                                                    if (x[1] <= 57.55000114440918) {
                                                                                        return -0.74f;
                                                                                    }

                                                                                    else {
                                                                                        return -0.86f;
                                                                                    }
                                                                                }

                                                                                else {
                                                                                    if (x[1] <= 57.5) {
                                                                                        return -0.585f;
                                                                                    }

                                                                                    else {
                                                                                        if (x[0] <= 21.84999942779541) {
                                                                                            return -0.75f;
                                                                                        }

                                                                                        else {
                                                                                            return -0.61f;
                                                                                        }
                                                                                    }
                                                                                }
                                                                            }

                                                                            else {
                                                                                if (x[1] <= 57.5) {
                                                                                    return -0.81f;
                                                                                }

                                                                                else {
                                                                                    return -0.75f;
                                                                                }
                                                                            }
                                                                        }
                                                                    }

                                                                    else {
                                                                        return -0.15f;
                                                                    }
                                                                }

                                                                else {
                                                                    if (x[1] <= 58.85000038146973) {
                                                                        return -0.87f;
                                                                    }

                                                                    else {
                                                                        if (x[0] <= 21.649999618530273) {
                                                                            return -1.09f;
                                                                        }

                                                                        else {
                                                                            return -1.09f;
                                                                        }
                                                                    }
                                                                }
                                                            }

                                                            else {
                                                                if (x[1] <= 59.10000038146973) {
                                                                    return -0.31f;
                                                                }

                                                                else {
                                                                    if (x[1] <= 60.35000038146973) {
                                                                        if (x[1] <= 60.10000038146973) {
                                                                            if (x[1] <= 59.80000114440918) {
                                                                                if (x[1] <= 59.39999961853027) {
                                                                                    if (x[0] <= 21.949999809265137) {
                                                                                        return -0.13f;
                                                                                    }

                                                                                    else {
                                                                                        return -0.6900000000000001f;
                                                                                    }
                                                                                }

                                                                                else {
                                                                                    if (x[1] <= 59.64999961853027) {
                                                                                        return -0.85f;
                                                                                    }

                                                                                    else {
                                                                                        if (x[0] <= 21.800000190734863) {
                                                                                            return -0.73f;
                                                                                        }

                                                                                        else {
                                                                                            return -0.7200000000000001f;
                                                                                        }
                                                                                    }
                                                                                }
                                                                            }

                                                                            else {
                                                                                if (x[0] <= 21.800000190734863) {
                                                                                    return -0.76f;
                                                                                }

                                                                                else {
                                                                                    return -0.41f;
                                                                                }
                                                                            }
                                                                        }

                                                                        else {
                                                                            return -1.0f;
                                                                        }
                                                                    }

                                                                    else {
                                                                        if (x[1] <= 61.04999923706055) {
                                                                            if (x[0] <= 21.699999809265137) {
                                                                                return -0.7f;
                                                                            }

                                                                            else {
                                                                                if (x[1] <= 60.54999923706055) {
                                                                                    return -0.52f;
                                                                                }

                                                                                else {
                                                                                    if (x[0] <= 21.899999618530273) {
                                                                                        return 0.05f;
                                                                                    }

                                                                                    else {
                                                                                        if (x[1] <= 60.79999923706055) {
                                                                                            return -0.3f;
                                                                                        }

                                                                                        else {
                                                                                            return -0.46f;
                                                                                        }
                                                                                    }
                                                                                }
                                                                            }
                                                                        }

                                                                        else {
                                                                            return -0.78f;
                                                                        }
                                                                    }
                                                                }
                                                            }
                                                        }
                                                    }

                                                    else {
                                                        return -0.12f;
                                                    }
                                                }

                                                else {
                                                    if (x[0] <= 21.75) {
                                                        return -0.55f;
                                                    }

                                                    else {
                                                        if (x[0] <= 21.899999618530273) {
                                                            if (x[1] <= 62.0) {
                                                                return -1.0f;
                                                            }

                                                            else {
                                                                return -0.99f;
                                                            }
                                                        }

                                                        else {
                                                            if (x[1] <= 61.60000038146973) {
                                                                return -0.55f;
                                                            }

                                                            else {
                                                                return -0.92f;
                                                            }
                                                        }
                                                    }
                                                }
                                            }

                                            else {
                                                if (x[0] <= 21.949999809265137) {
                                                    if (x[1] <= 63.89999961853027) {
                                                        if (x[0] <= 21.399999618530273) {
                                                            if (x[1] <= 63.5) {
                                                                return -0.56f;
                                                            }

                                                            else {
                                                                return -0.27f;
                                                            }
                                                        }

                                                        else {
                                                            return -0.11f;
                                                        }
                                                    }

                                                    else {
                                                        if (x[1] <= 64.0999984741211) {
                                                            return -0.93f;
                                                        }

                                                        else {
                                                            return -0.7f;
                                                        }
                                                    }
                                                }

                                                else {
                                                    if (x[1] <= 63.44999885559082) {
                                                        return -0.4f;
                                                    }

                                                    else {
                                                        return 0.0f;
                                                    }
                                                }
                                            }
                                        }

                                        else {
                                            if (x[0] <= 22.15000057220459) {
                                                if (x[1] <= 58.89999961853027) {
                                                    if (x[1] <= 58.64999961853027) {
                                                        if (x[1] <= 58.25) {
                                                            return -0.45f;
                                                        }

                                                        else {
                                                            return -0.475f;
                                                        }
                                                    }

                                                    else {
                                                        if (x[1] <= 58.75) {
                                                            return -0.93f;
                                                        }

                                                        else {
                                                            return -0.61f;
                                                        }
                                                    }
                                                }

                                                else {
                                                    if (x[1] <= 60.85000038146973) {
                                                        if (x[1] <= 59.5) {
                                                            return 0.32f;
                                                        }

                                                        else {
                                                            if (x[1] <= 60.35000038146973) {
                                                                return -0.18f;
                                                            }

                                                            else {
                                                                return -0.43f;
                                                            }
                                                        }
                                                    }

                                                    else {
                                                        if (x[1] <= 62.0) {
                                                            return 0.4f;
                                                        }

                                                        else {
                                                            return 0.04f;
                                                        }
                                                    }
                                                }
                                            }

                                            else {
                                                if (x[1] <= 59.04999923706055) {
                                                    if (x[1] <= 58.04999923706055) {
                                                        if (x[1] <= 57.89999961853027) {
                                                            if (x[1] <= 57.54999923706055) {
                                                                return -0.82f;
                                                            }

                                                            else {
                                                                return -0.88f;
                                                            }
                                                        }

                                                        else {
                                                            return -0.69f;
                                                        }
                                                    }

                                                    else {
                                                        if (x[1] <= 58.39999961853027) {
                                                            return 0.63f;
                                                        }

                                                        else {
                                                            if (x[1] <= 58.95000076293945) {
                                                                if (x[1] <= 58.75) {
                                                                    if (x[0] <= 22.25) {
                                                                        return -0.52f;
                                                                    }

                                                                    else {
                                                                        return -0.48f;
                                                                    }
                                                                }

                                                                else {
                                                                    if (x[1] <= 58.85000038146973) {
                                                                        return -0.84f;
                                                                    }

                                                                    else {
                                                                        return -0.83f;
                                                                    }
                                                                }
                                                            }

                                                            else {
                                                                if (x[0] <= 22.25) {
                                                                    return -0.09999999999999999f;
                                                                }

                                                                else {
                                                                    return -0.198f;
                                                                }
                                                            }
                                                        }
                                                    }
                                                }

                                                else {
                                                    if (x[1] <= 61.85000038146973) {
                                                        if (x[1] <= 61.25) {
                                                            if (x[1] <= 60.5) {
                                                                if (x[1] <= 59.60000038146973) {
                                                                    if (x[0] <= 22.25) {
                                                                        if (x[1] <= 59.29999923706055) {
                                                                            return -0.85f;
                                                                        }

                                                                        else {
                                                                            return -0.62f;
                                                                        }
                                                                    }

                                                                    else {
                                                                        return -0.35f;
                                                                    }
                                                                }

                                                                else {
                                                                    if (x[1] <= 60.0) {
                                                                        if (x[1] <= 59.80000114440918) {
                                                                            return -0.91f;
                                                                        }

                                                                        else {
                                                                            return -0.88f;
                                                                        }
                                                                    }

                                                                    else {
                                                                        if (x[0] <= 22.25) {
                                                                            return -0.48f;
                                                                        }

                                                                        else {
                                                                            if (x[1] <= 60.14999961853027) {
                                                                                return -0.82f;
                                                                            }

                                                                            else {
                                                                                return -0.715f;
                                                                            }
                                                                        }
                                                                    }
                                                                }
                                                            }

                                                            else {
                                                                if (x[1] <= 60.89999961853027) {
                                                                    return -0.59f;
                                                                }

                                                                else {
                                                                    return -0.53f;
                                                                }
                                                            }
                                                        }

                                                        else {
                                                            if (x[1] <= 61.54999923706055) {
                                                                return -0.97f;
                                                            }

                                                            else {
                                                                if (x[1] <= 61.64999961853027) {
                                                                    return -0.73f;
                                                                }

                                                                else {
                                                                    return -0.75f;
                                                                }
                                                            }
                                                        }
                                                    }

                                                    else {
                                                        if (x[1] <= 64.0999984741211) {
                                                            if (x[0] <= 22.25) {
                                                                if (x[1] <= 62.5) {
                                                                    return -0.14f;
                                                                }

                                                                else {
                                                                    return -0.12f;
                                                                }
                                                            }

                                                            else {
                                                                if (x[1] <= 63.80000114440918) {
                                                                    if (x[1] <= 62.85000038146973) {
                                                                        return -0.29500000000000004f;
                                                                    }

                                                                    else {
                                                                        return -0.78f;
                                                                    }
                                                                }

                                                                else {
                                                                    if (x[1] <= 63.95000076293945) {
                                                                        return 0.1f;
                                                                    }

                                                                    else {
                                                                        return -0.34500000000000003f;
                                                                    }
                                                                }
                                                            }
                                                        }

                                                        else {
                                                            return -1.02f;
                                                        }
                                                    }
                                                }
                                            }
                                        }
                                    }
                                }

                                else {
                                    if (x[1] <= 69.14999771118164) {
                                        if (x[0] <= 21.949999809265137) {
                                            if (x[1] <= 66.20000076293945) {
                                                if (x[1] <= 64.95000076293945) {
                                                    if (x[1] <= 64.79999923706055) {
                                                        if (x[0] <= 21.649999618530273) {
                                                            return -0.78f;
                                                        }

                                                        else {
                                                            return -0.86f;
                                                        }
                                                    }

                                                    else {
                                                        return -0.7f;
                                                    }
                                                }

                                                else {
                                                    if (x[0] <= 21.09999942779541) {
                                                        if (x[1] <= 65.79999923706055) {
                                                            if (x[1] <= 65.54999923706055) {
                                                                return -0.91f;
                                                            }

                                                            else {
                                                                return -0.93f;
                                                            }
                                                        }

                                                        else {
                                                            return -0.37f;
                                                        }
                                                    }

                                                    else {
                                                        if (x[1] <= 65.04999923706055) {
                                                            return 0.23f;
                                                        }

                                                        else {
                                                            if (x[1] <= 65.54999923706055) {
                                                                return -0.3f;
                                                            }

                                                            else {
                                                                return -0.24f;
                                                            }
                                                        }
                                                    }
                                                }
                                            }

                                            else {
                                                if (x[1] <= 66.60000228881836) {
                                                    return -1.08f;
                                                }

                                                else {
                                                    if (x[1] <= 67.04999923706055) {
                                                        if (x[0] <= 21.84999942779541) {
                                                            if (x[1] <= 66.85000228881836) {
                                                                return -0.61f;
                                                            }

                                                            else {
                                                                if (x[1] <= 66.95000076293945) {
                                                                    return -0.545f;
                                                                }

                                                                else {
                                                                    return -0.54f;
                                                                }
                                                            }
                                                        }

                                                        else {
                                                            return -0.76f;
                                                        }
                                                    }

                                                    else {
                                                        if (x[1] <= 67.39999771118164) {
                                                            return -0.96f;
                                                        }

                                                        else {
                                                            if (x[0] <= 21.550000190734863) {
                                                                if (x[1] <= 67.8499984741211) {
                                                                    return -0.72f;
                                                                }

                                                                else {
                                                                    return -0.69f;
                                                                }
                                                            }

                                                            else {
                                                                return -0.92f;
                                                            }
                                                        }
                                                    }
                                                }
                                            }
                                        }

                                        else {
                                            if (x[1] <= 68.75) {
                                                if (x[0] <= 22.050000190734863) {
                                                    return -1.08f;
                                                }

                                                else {
                                                    if (x[1] <= 68.04999923706055) {
                                                        if (x[1] <= 67.29999923706055) {
                                                            if (x[1] <= 64.75) {
                                                                return -0.95f;
                                                            }

                                                            else {
                                                                if (x[1] <= 67.0999984741211) {
                                                                    if (x[1] <= 66.29999923706055) {
                                                                        if (x[1] <= 65.3499984741211) {
                                                                            return -0.81f;
                                                                        }

                                                                        else {
                                                                            return -0.88f;
                                                                        }
                                                                    }

                                                                    else {
                                                                        return -0.76f;
                                                                    }
                                                                }

                                                                else {
                                                                    return -0.9f;
                                                                }
                                                            }
                                                        }

                                                        else {
                                                            return -0.46f;
                                                        }
                                                    }

                                                    else {
                                                        return -1.05f;
                                                    }
                                                }
                                            }

                                            else {
                                                if (x[1] <= 68.95000076293945) {
                                                    return -0.25f;
                                                }

                                                else {
                                                    return -0.7f;
                                                }
                                            }
                                        }
                                    }

                                    else {
                                        if (x[0] <= 22.15000057220459) {
                                            if (x[1] <= 71.80000305175781) {
                                                if (x[0] <= 21.600000381469727) {
                                                    if (x[1] <= 70.35000228881836) {
                                                        return -0.96f;
                                                    }

                                                    else {
                                                        return -0.865f;
                                                    }
                                                }

                                                else {
                                                    if (x[1] <= 70.75) {
                                                        if (x[0] <= 21.850000381469727) {
                                                            return -0.81f;
                                                        }

                                                        else {
                                                            return -0.86f;
                                                        }
                                                    }

                                                    else {
                                                        return -0.66f;
                                                    }
                                                }
                                            }

                                            else {
                                                if (x[0] <= 21.550000190734863) {
                                                    return -0.94f;
                                                }

                                                else {
                                                    if (x[1] <= 72.55000305175781) {
                                                        return -0.94f;
                                                    }

                                                    else {
                                                        if (x[0] <= 21.90000057220459) {
                                                            return -1.04f;
                                                        }

                                                        else {
                                                            return -1.02f;
                                                        }
                                                    }
                                                }
                                            }
                                        }

                                        else {
                                            if (x[0] <= 22.25) {
                                                if (x[1] <= 72.89999771118164) {
                                                    if (x[1] <= 71.5) {
                                                        return -0.69f;
                                                    }

                                                    else {
                                                        return -0.54f;
                                                    }
                                                }

                                                else {
                                                    return -0.34f;
                                                }
                                            }

                                            else {
                                                return -1.04f;
                                            }
                                        }
                                    }
                                }
                            }

                            else {
                                if (x[0] <= 23.75) {
                                    if (x[0] <= 22.449999809265137) {
                                        if (x[1] <= 54.5) {
                                            if (x[1] <= 52.5) {
                                                if (x[1] <= 51.04999923706055) {
                                                    if (x[1] <= 40.70000076293945) {
                                                        return -0.18f;
                                                    }

                                                    else {
                                                        if (x[1] <= 45.45000076293945) {
                                                            return -0.9f;
                                                        }

                                                        else {
                                                            if (x[1] <= 47.75) {
                                                                return -0.1f;
                                                            }

                                                            else {
                                                                if (x[1] <= 50.0) {
                                                                    if (x[1] <= 48.5) {
                                                                        return -0.6f;
                                                                    }

                                                                    else {
                                                                        return -0.61f;
                                                                    }
                                                                }

                                                                else {
                                                                    return -0.445f;
                                                                }
                                                            }
                                                        }
                                                    }
                                                }

                                                else {
                                                    if (x[1] <= 51.54999923706055) {
                                                        return 0.0f;
                                                    }

                                                    else {
                                                        return -0.1f;
                                                    }
                                                }
                                            }

                                            else {
                                                if (x[1] <= 53.5) {
                                                    return 0.52f;
                                                }

                                                else {
                                                    return 0.5f;
                                                }
                                            }
                                        }

                                        else {
                                            if (x[1] <= 64.75) {
                                                if (x[1] <= 63.20000076293945) {
                                                    if (x[1] <= 57.60000038146973) {
                                                        if (x[1] <= 56.75) {
                                                            if (x[1] <= 55.5) {
                                                                return -0.33f;
                                                            }

                                                            else {
                                                                return -0.25f;
                                                            }
                                                        }

                                                        else {
                                                            return -0.12f;
                                                        }
                                                    }

                                                    else {
                                                        if (x[1] <= 61.95000076293945) {
                                                            if (x[1] <= 59.10000038146973) {
                                                                if (x[1] <= 58.10000038146973) {
                                                                    if (x[1] <= 57.85000038146973) {
                                                                        return -0.84f;
                                                                    }

                                                                    else {
                                                                        return -0.685f;
                                                                    }
                                                                }

                                                                else {
                                                                    if (x[1] <= 58.55000114440918) {
                                                                        return -0.21f;
                                                                    }

                                                                    else {
                                                                        if (x[1] <= 58.95000076293945) {
                                                                            return -0.79f;
                                                                        }

                                                                        else {
                                                                            return -0.39999999999999997f;
                                                                        }
                                                                    }
                                                                }
                                                            }

                                                            else {
                                                                if (x[1] <= 60.5) {
                                                                    if (x[1] <= 59.79999923706055) {
                                                                        if (x[1] <= 59.39999961853027) {
                                                                            return -0.75f;
                                                                        }

                                                                        else {
                                                                            return -0.7150000000000001f;
                                                                        }
                                                                    }

                                                                    else {
                                                                        return -0.87f;
                                                                    }
                                                                }

                                                                else {
                                                                    if (x[1] <= 61.45000076293945) {
                                                                        return -0.6183333333333333f;
                                                                    }

                                                                    else {
                                                                        return -0.75f;
                                                                    }
                                                                }
                                                            }
                                                        }

                                                        else {
                                                            if (x[1] <= 62.5) {
                                                                return -0.4033333333333333f;
                                                            }

                                                            else {
                                                                return -0.72f;
                                                            }
                                                        }
                                                    }
                                                }

                                                else {
                                                    if (x[1] <= 63.89999961853027) {
                                                        if (x[1] <= 63.69999885559082) {
                                                            if (x[1] <= 63.5) {
                                                                return -0.92f;
                                                            }

                                                            else {
                                                                return -0.93f;
                                                            }
                                                        }

                                                        else {
                                                            return -1.06f;
                                                        }
                                                    }

                                                    else {
                                                        if (x[1] <= 64.25) {
                                                            return -0.84f;
                                                        }

                                                        else {
                                                            return -0.95f;
                                                        }
                                                    }
                                                }
                                            }

                                            else {
                                                if (x[1] <= 67.75) {
                                                    if (x[1] <= 66.5) {
                                                        if (x[1] <= 65.1500015258789) {
                                                            return 0.38f;
                                                        }

                                                        else {
                                                            return -0.4f;
                                                        }
                                                    }

