#pragma once
#include <cstdarg>
namespace Eloquent {
    namespace ML {
        namespace Port {
            class DecisionTreeRegressor {
                public:
                    /**
                    * Predict class for features vector
                    */
                    float predict(float *x) {
                        if (x[0] <= 24.550000190734863) {
                            if (x[2] <= 0.8149999976158142) {
                                if (x[0] <= 22.75) {
                                    if (x[2] <= 0.6550000011920929) {
                                        if (x[0] <= 22.050000190734863) {
                                            if (x[0] <= 19.550000190734863) {
                                                return -0.2875000000000001f;
                                            }

                                            else {
                                                if (x[0] <= 20.449999809265137) {
                                                    if (x[2] <= 0.625) {
                                                        if (x[1] <= 48.54999923706055) {
                                                            if (x[0] <= 20.25) {
                                                                return -0.6430769230769232f;
                                                            }

                                                            else {
                                                                return -0.8305882352941176f;
                                                            }
                                                        }

                                                        else {
                                                            return -0.5155555555555557f;
                                                        }
                                                    }

                                                    else {
                                                        if (x[1] <= 42.0) {
                                                            return -0.8181818181818182f;
                                                        }

                                                        else {
                                                            return -0.8833333333333334f;
                                                        }
                                                    }
                                                }

                                                else {
                                                    if (x[1] <= 68.95000076293945) {
                                                        if (x[1] <= 40.30000114440918) {
                                                            if (x[2] <= 0.625) {
                                                                return -0.678661971830986f;
                                                            }

                                                            else {
                                                                return -0.4954237288135593f;
                                                            }
                                                        }

                                                        else {
                                                            if (x[1] <= 55.95000076293945) {
                                                                return -0.5154093567251461f;
                                                            }

                                                            else {
                                                                return -0.6286086956521739f;
                                                            }
                                                        }
                                                    }

                                                    else {
                                                        return -0.8361538461538461f;
                                                    }
                                                }
                                            }
                                        }

                                        else {
                                            if (x[2] <= 0.625) {
                                                if (x[1] <= 59.04999923706055) {
                                                    if (x[2] <= 0.4950000047683716) {
                                                        if (x[1] <= 58.5) {
                                                            if (x[0] <= 22.34999942779541) {
                                                                return -0.6702941176470587f;
                                                            }

                                                            else {
                                                                return -0.5550675675675675f;
                                                            }
                                                        }

                                                        else {
                                                            return -0.2983333333333333f;
                                                        }
                                                    }

                                                    else {
                                                        if (x[3] <= 13.063992977142334) {
                                                            if (x[2] <= 0.5849999785423279) {
                                                                return -0.4247706422018349f;
                                                            }

                                                            else {
                                                                return -0.2771428571428571f;
                                                            }
                                                        }

                                                        else {
                                                            if (x[3] <= 13.863992691040039) {
                                                                return -0.5284671532846716f;
                                                            }

                                                            else {
                                                                return -0.39891304347826073f;
                                                            }
                                                        }
                                                    }
                                                }

                                                else {
                                                    if (x[0] <= 22.65000057220459) {
                                                        if (x[2] <= 0.4650000035762787) {
                                                            if (x[2] <= 0.4050000011920929) {
                                                                return -0.6831818181818182f;
                                                            }

                                                            else {
                                                                return -0.7874074074074074f;
                                                            }
                                                        }

                                                        else {
                                                            if (x[1] <= 60.14999961853027) {
                                                                return -0.7573684210526317f;
                                                            }

                                                            else {
                                                                return -0.6083783783783786f;
                                                            }
                                                        }
                                                    }

                                                    else {
                                                        if (x[1] <= 62.45000076293945) {
                                                            return -0.21642857142857144f;
                                                        }

                                                        else {
                                                            return -0.6042857142857141f;
                                                        }
                                                    }
                                                }
                                            }

                                            else {
                                                if (x[0] <= 22.65000057220459) {
                                                    if (x[3] <= 13.863992691040039) {
                                                        if (x[3] <= 10.449999809265137) {
                                                            if (x[1] <= 38.35000038146973) {
                                                                return -0.26875000000000004f;
                                                            }

                                                            else {
                                                                return -0.4038461538461538f;
                                                            }
                                                        }

                                                        else {
                                                            if (x[1] <= 38.55000114440918) {
                                                                return -0.675f;
                                                            }

                                                            else {
                                                                return -0.356f;
                                                            }
                                                        }
                                                    }

                                                    else {
                                                        if (x[1] <= 41.0) {
                                                            return -0.3625f;
                                                        }

                                                        else {
                                                            return -0.14705882352941174f;
                                                        }
                                                    }
                                                }

                                                else {
                                                    if (x[3] <= 15.599999904632568) {
                                                        return -0.08266666666666668f;
                                                    }

                                                    else {
                                                        return -0.41000000000000003f;
                                                    }
                                                }
                                            }
                                        }
                                    }

                                    else {
                                        if (x[3] <= 27.649999618530273) {
                                            if (x[0] <= 22.050000190734863) {
                                                if (x[0] <= 21.15000057220459) {
                                                    if (x[2] <= 0.7250000238418579) {
                                                        if (x[0] <= 19.34999942779541) {
                                                            return -0.3525000000000001f;
                                                        }

                                                        else {
                                                            if (x[1] <= 29.199999809265137) {
                                                                return -0.4494117647058824f;
                                                            }

                                                            else {
                                                                return -0.5809774436090225f;
                                                            }
                                                        }
                                                    }

                                                    else {
                                                        if (x[1] <= 29.899999618530273) {
                                                            if (x[3] <= 8.76399278640747) {
                                                                return -0.27391304347826084f;
                                                            }

                                                            else {
                                                                return -0.55f;
                                                            }
                                                        }

                                                        else {
                                                            if (x[0] <= 18.949999809265137) {
                                                                return -0.2822222222222222f;
                                                            }

                                                            else {
                                                                return -0.4878026905829595f;
                                                            }
                                                        }
                                                    }
                                                }

                                                else {
                                                    if (x[3] <= 13.313992977142334) {
                                                        if (x[1] <= 32.14999961853027) {
                                                            if (x[2] <= 0.7749999761581421) {
                                                                return -0.45194805194805193f;
                                                            }

                                                            else {
                                                                return -0.2846153846153846f;
                                                            }
                                                        }

                                                        else {
                                                            if (x[0] <= 21.34999942779541) {
                                                                return -0.3574074074074074f;
                                                            }

                                                            else {
                                                                return -0.2482758620689654f;
                                                            }
                                                        }
                                                    }

                                                    else {
                                                        if (x[2] <= 0.7350000143051147) {
                                                            if (x[1] <= 60.45000076293945) {
                                                                return -0.49299401197604814f;
                                                            }

                                                            else {
                                                                return -0.6749999999999999f;
                                                            }
                                                        }

                                                        else {
                                                            if (x[1] <= 33.45000076293945) {
                                                                return -0.4472058823529411f;
                                                            }

                                                            else {
                                                                return -0.3364077669902914f;
                                                            }
                                                        }
                                                    }
                                                }
                                            }

                                            else {
                                                if (x[3] <= 13.313992977142334) {
                                                    if (x[2] <= 0.7549999952316284) {
                                                        if (x[3] <= 5.200000047683716) {
                                                            if (x[1] <= 37.85000038146973) {
                                                                return -0.17686567164179098f;
                                                            }

                                                            else {
                                                                return -0.2878787878787877f;
                                                            }
                                                        }

                                                        else {
                                                            if (x[1] <= 44.14999961853027) {
                                                                return -0.12307692307692308f;
                                                            }

                                                            else {
                                                                return 0.05714285714285714f;
                                                            }
                                                        }
                                                    }

                                                    else {
                                                        if (x[1] <= 35.25) {
                                                            if (x[1] <= 33.75) {
                                                                return -0.03707865168539325f;
                                                            }

                                                            else {
                                                                return 0.12666666666666665f;
                                                            }
                                                        }

                                                        else {
                                                            if (x[1] <= 46.04999923706055) {
                                                                return -0.21590909090909086f;
                                                            }

                                                            else {
                                                                return 0.026315789473684195f;
                                                            }
                                                        }
                                                    }
                                                }

                                                else {
                                                    if (x[3] <= 13.863992691040039) {
                                                        if (x[1] <= 42.75) {
                                                            if (x[1] <= 31.699999809265137) {
                                                                return -0.5465384615384616f;
                                                            }

                                                            else {
                                                                return -0.3946875f;
                                                            }
                                                        }

                                                        else {
                                                            if (x[2] <= 0.6949999928474426) {
                                                                return -0.32897058823529407f;
                                                            }

                                                            else {
                                                                return -0.20481203007518795f;
                                                            }
                                                        }
                                                    }

                                                    else {
                                                        if (x[0] <= 22.449999809265137) {
                                                            if (x[2] <= 0.7950000166893005) {
                                                                return -0.2873015873015874f;
                                                            }

                                                            else {
                                                                return -0.011111111111111108f;
                                                            }
                                                        }

                                                        else {
                                                            if (x[1] <= 21.5) {
                                                                return 0.145f;
                                                            }

                                                            else {
                                                                return -0.15f;
                                                            }
                                                        }
                                                    }
                                                }
                                            }
                                        }

                                        else {
                                            return 0.43833333333333335f;
                                        }
                                    }
                                }

                                else {
                                    if (x[2] <= 0.6349999904632568) {
                                        if (x[0] <= 23.550000190734863) {
                                            if (x[3] <= 13.313992977142334) {
                                                if (x[3] <= 4.299999952316284) {
                                                    if (x[2] <= 0.48999999463558197) {
                                                        if (x[1] <= 32.25) {
                                                            return -0.10909090909090911f;
                                                        }

                                                        else {
                                                            if (x[2] <= 0.39000000059604645) {
                                                                return -0.5230769230769231f;
                                                            }

                                                            else {
                                                                return -0.29999999999999993f;
                                                            }
                                                        }
                                                    }

                                                    else {
                                                        if (x[1] <= 24.09999942779541) {
                                                            return -0.4222222222222223f;
                                                        }

                                                        else {
                                                            if (x[1] <= 25.850000381469727) {
                                                                return 0.006666666666666677f;
                                                            }

                                                            else {
                                                                return -0.19504950495049514f;
                                                            }
                                                        }
                                                    }
                                                }

                                                else {
                                                    if (x[2] <= 0.6100000143051147) {
                                                        return 0.14444444444444446f;
                                                    }

                                                    else {
                                                        return -0.06666666666666665f;
                                                    }
                                                }
                                            }

                                            else {
                                                if (x[2] <= 0.5049999952316284) {
                                                    if (x[0] <= 23.050000190734863) {
                                                        if (x[2] <= 0.3449999988079071) {
                                                            if (x[0] <= 22.84999942779541) {
                                                                return -0.8855555555555557f;
                                                            }

                                                            else {
                                                                return -0.716f;
                                                            }
                                                        }

                                                        else {
                                                            if (x[2] <= 0.4749999940395355) {
                                                                return -0.5566141732283466f;
                                                            }

                                                            else {
                                                                return -0.437f;
                                                            }
                                                        }
                                                    }

                                                    else {
                                                        if (x[3] <= 22.399999618530273) {
                                                            if (x[1] <= 33.04999923706055) {
                                                                return -0.6172f;
                                                            }

                                                            else {
                                                                return -0.4084988452655884f;
                                                            }
                                                        }

                                                        else {
                                                            if (x[1] <= 58.44999885559082) {
                                                                return -0.4666666666666668f;
                                                            }

                                                            else {
                                                                return -1.0555555555555554f;
                                                            }
                                                        }
                                                    }
                                                }

                                                else {
                                                    if (x[3] <= 16.050000190734863) {
                                                        if (x[0] <= 23.050000190734863) {
                                                            if (x[2] <= 0.5949999988079071) {
                                                                return -0.5082248520710061f;
                                                            }

                                                            else {
                                                                return -0.3630172413793104f;
                                                            }
                                                        }

                                                        else {
                                                            if (x[1] <= 32.35000038146973) {
                                                                return -0.4865217391304348f;
                                                            }

                                                            else {
                                                                return -0.28612980769230806f;
                                                            }
                                                        }
                                                    }

                                                    else {
                                                        if (x[1] <= 50.75) {
                                                            if (x[3] <= 22.449999809265137) {
                                                                return -0.02727272727272728f;
                                                            }

                                                            else {
                                                                return -0.3880952380952381f;
                                                            }
                                                        }

                                                        else {
                                                            if (x[1] <= 56.10000038146973) {
                                                                return 0.04999999999999998f;
                                                            }

                                                            else {
                                                                return 0.3933333333333333f;
                                                            }
                                                        }
                                                    }
                                                }
                                            }
                                        }

                                        else {
                                            if (x[2] <= 0.4650000035762787) {
                                                if (x[3] <= 25.949999809265137) {
                                                    if (x[1] <= 58.85000038146973) {
                                                        if (x[0] <= 24.050000190734863) {
                                                            if (x[0] <= 23.65000057220459) {
                                                                return -0.5275000000000002f;
                                                            }

                                                            else {
                                                                return -0.40237837837837853f;
                                                            }
                                                        }

                                                        else {
                                                            if (x[1] <= 47.19999885559082) {
                                                                return -0.3560465116279069f;
                                                            }

                                                            else {
                                                                return -0.19041095890410958f;
                                                            }
                                                        }
                                                    }

                                                    else {
                                                        if (x[2] <= 0.33500000834465027) {
                                                            if (x[0] <= 24.050000190734863) {
                                                                return -0.2604761904761904f;
                                                            }

                                                            else {
                                                                return -0.5233333333333333f;
                                                            }
                                                        }

                                                        else {
                                                            if (x[0] <= 23.84999942779541) {
                                                                return -0.2900000000000001f;
                                                            }

                                                            else {
                                                                return -0.12978723404255324f;
                                                            }
                                                        }
                                                    }
                                                }

                                                else {
                                                    if (x[1] <= 65.4000015258789) {
                                                        return -0.7799999999999999f;
                                                    }

                                                    else {
                                                        return -0.66f;
                                                    }
                                                }
                                            }

                                            else {
                                                if (x[0] <= 24.15000057220459) {
                                                    if (x[3] <= 12.113992691040039) {
                                                        if (x[1] <= 25.800000190734863) {
                                                            if (x[2] <= 0.5649999976158142) {
                                                                return 0.1888888888888889f;
                                                            }

                                                            else {
                                                                return 0.2222222222222222f;
                                                            }
                                                        }

                                                        else {
                                                            if (x[2] <= 0.5550000071525574) {
                                                                return -0.20526315789473687f;
                                                            }

                                                            else {
                                                                return 0.02075471698113208f;
                                                            }
                                                        }
                                                    }

                                                    else {
                                                        if (x[1] <= 40.54999923706055) {
                                                            if (x[3] <= 27.449999809265137) {
                                                                return -0.2696428571428571f;
                                                            }

                                                            else {
                                                                return -0.6833333333333332f;
                                                            }
                                                        }

                                                        else {
                                                            if (x[3] <= 15.599999904632568) {
                                                                return -0.2038757396449704f;
                                                            }

                                                            else {
                                                                return -0.0756578947368421f;
                                                            }
                                                        }
                                                    }
                                                }

                                                else {
                                                    if (x[3] <= 14.313992977142334) {
                                                        if (x[2] <= 0.5149999856948853) {
                                                            if (x[1] <= 38.89999961853027) {
                                                                return -0.2870588235294118f;
                                                            }

                                                            else {
                                                                return -0.12454545454545454f;
                                                            }
                                                        }

                                                        else {
                                                            if (x[3] <= 8.76399278640747) {
                                                                return 0.07500000000000004f;
                                                            }

                                                            else {
                                                                return -0.05584507042253521f;
                                                            }
                                                        }
                                                    }

                                                    else {
                                                        if (x[1] <= 46.80000114440918) {
                                                            if (x[3] <= 25.949999809265137) {
                                                                return 0.027777777777777776f;
                                                            }

                                                            else {
                                                                return -0.4166666666666667f;
                                                            }
                                                        }

                                                        else {
                                                            if (x[3] <= 30.84999942779541) {
                                                                return 0.06249999999999999f;
                                                            }

                                                            else {
                                                                return 0.25f;
                                                            }
                                                        }
                                                    }
                                                }
                                            }
                                        }
                                    }

                                    else {
                                        if (x[3] <= 26.5) {
                                            if (x[0] <= 23.449999809265137) {
                                                if (x[3] <= 13.313992977142334) {
                                                    if (x[2] <= 0.6550000011920929) {
                                                        return -0.3100000000000001f;
                                                    }

                                                    else {
                                                        if (x[0] <= 23.15000057220459) {
                                                            if (x[1] <= 52.30000114440918) {
                                                                return -0.04482758620689653f;
                                                            }

                                                            else {
                                                                return 0.20666666666666664f;
                                                            }
                                                        }

                                                        else {
                                                            if (x[2] <= 0.7549999952316284) {
                                                                return 0.036111111111111115f;
                                                            }

                                                            else {
                                                                return 0.2115384615384615f;
                                                            }
                                                        }
                                                    }
                                                }

                                                else {
                                                    if (x[3] <= 13.863992691040039) {
                                                        if (x[1] <= 40.5) {
                                                            if (x[2] <= 0.7150000035762787) {
                                                                return -0.4705154639175257f;
                                                            }

                                                            else {
                                                                return -0.2857534246575343f;
                                                            }
                                                        }

                                                        else {
                                                            if (x[2] <= 0.6949999928474426) {
                                                                return -0.2101538461538462f;
                                                            }

                                                            else {
                                                                return -0.04720812182741117f;
                                                            }
                                                        }
                                                    }

                                                    else {
                                                        if (x[1] <= 47.25) {
                                                            if (x[1] <= 45.35000038146973) {
                                                                return -0.06607142857142849f;
                                                            }

                                                            else {
                                                                return -0.2833333333333333f;
                                                            }
                                                        }

                                                        else {
                                                            if (x[2] <= 0.7150000035762787) {
                                                                return 0.029999999999999992f;
                                                            }

                                                            else {
                                                                return 0.32941176470588235f;
                                                            }
                                                        }
                                                    }
                                                }
                                            }

                                            else {
                                                if (x[0] <= 23.84999942779541) {
                                                    if (x[1] <= 21.050000190734863) {
                                                        return 0.35428571428571426f;
                                                    }

                                                    else {
                                                        if (x[1] <= 38.45000076293945) {
                                                            if (x[2] <= 0.675000011920929) {
                                                                return -0.17222222222222222f;
                                                            }

                                                            else {
                                                                return 0.013509615384615394f;
                                                            }
                                                        }

                                                        else {
                                                            if (x[2] <= 0.6550000011920929) {
                                                                return -0.08592592592592592f;
                                                            }

                                                            else {
                                                                return 0.11502415458937193f;
                                                            }
                                                        }
                                                    }
                                                }

                                                else {
                                                    if (x[1] <= 17.550000190734863) {
                                                        return -0.3055555555555555f;
                                                    }

                                                    else {
                                                        if (x[2] <= 0.7250000238418579) {
                                                            if (x[3] <= 20.90000057220459) {
                                                                return 0.11842443729903543f;
                                                            }

                                                            else {
                                                                return -0.07500000000000001f;
                                                            }
                                                        }

                                                        else {
                                                            if (x[1] <= 31.149999618530273) {
                                                                return 0.14398305084745766f;
                                                            }

                                                            else {
                                                                return 0.23733333333333334f;
                                                            }
                                                        }
                                                    }
                                                }
                                            }
                                        }

                                        else {
                                            if (x[3] <= 28.84999942779541) {
                                                if (x[0] <= 23.350000381469727) {
                                                    if (x[0] <= 22.949999809265137) {
                                                        return 0.6777777777777776f;
                                                    }

                                                    else {
                                                        return 0.65f;
                                                    }
                                                }

                                                else {
                                                    if (x[1] <= 59.69999885559082) {
                                                        return 0.7833333333333337f;
                                                    }

                                                    else {
                                                        return 0.7999999999999999f;
                                                    }
                                                }
                                            }

                                            else {
                                                if (x[1] <= 50.5) {
                                                    if (x[0] <= 23.550000190734863) {
                                                        if (x[1] <= 45.0) {
                                                            if (x[2] <= 0.7199999988079071) {
                                                                return -0.4f;
                                                            }

                                                            else {
                                                                return -0.10909090909090911f;
                                                            }
                                                        }

                                                        else {
                                                            if (x[0] <= 23.15000057220459) {
                                                                return -0.12580645161290324f;
                                                            }

                                                            else {
                                                                return 0.005882352941176463f;
                                                            }
                                                        }
                                                    }

                                                    else {
                                                        if (x[1] <= 43.85000038146973) {
                                                            return 0.03636363636363636f;
                                                        }

                                                        else {
                                                            if (x[1] <= 48.25) {
                                                                return 0.37f;
                                                            }

                                                            else {
                                                                return 0.205f;
                                                            }
                                                        }
                                                    }
                                                }

                                                else {
                                                    if (x[2] <= 0.7450000047683716) {
                                                        if (x[2] <= 0.6650000214576721) {
                                                            if (x[2] <= 0.6449999809265137) {
                                                                return 0.1958333333333333f;
                                                            }

                                                            else {
                                                                return 0.018181818181818174f;
                                                            }
                                                        }

                                                        else {
                                                            if (x[3] <= 30.84999942779541) {
                                                                return 0.4f;
                                                            }

                                                            else {
                                                                return 0.24122807017543857f;
                                                            }
                                                        }
                                                    }

                                                    else {
                                                        if (x[2] <= 0.7950000166893005) {
                                                            if (x[1] <= 57.5) {
                                                                return 0.42121212121212115f;
                                                            }

                                                            else {
                                                                return 0.3176470588235294f;
                                                            }
                                                        }

                                                        else {
                                                            if (x[0] <= 23.949999809265137) {
                                                                return 0.5222222222222223f;
                                                            }

                                                            else {
                                                                return 0.43f;
                                                            }
                                                        }
                                                    }
                                                }
                                            }
                                        }
                                    }
                                }
                            }

                            else {
                                if (x[0] <= 22.050000190734863) {
                                    if (x[2] <= 1.284999966621399) {
                                        if (x[3] <= -0.699999988079071) {
                                            if (x[3] <= -4.349999904632568) {
                                                return 0.12f;
                                            }

                                            else {
                                                if (x[0] <= 19.40000057220459) {
                                                    return -1.0266666666666666f;
                                                }

                                                else {
                                                    if (x[0] <= 21.550000190734863) {
                                                        if (x[1] <= 36.04999923706055) {
                                                            return -0.823076923076923f;
                                                        }

                                                        else {
                                                            return -0.7058823529411765f;
                                                        }
                                                    }

                                                    else {
                                                        return -0.5636363636363636f;
                                                    }
                                                }
                                            }
                                        }

                                        else {
                                            if (x[2] <= 1.0449999570846558) {
                                                if (x[0] <= 21.15000057220459) {
                                                    if (x[0] <= 19.550000190734863) {
                                                        if (x[1] <= 60.0) {
                                                            if (x[2] <= 0.9600000083446503) {
                                                                return -0.5994444444444444f;
                                                            }

                                                            else {
                                                                return -0.2753846153846154f;
                                                            }
                                                        }

                                                        else {
                                                            return -0.8722222222222222f;
                                                        }
                                                    }

                                                    else {
                                                        if (x[2] <= 0.9650000035762787) {
                                                            if (x[3] <= 14.363992691040039) {
                                                                return -0.3986206896551722f;
                                                            }

                                                            else {
                                                                return -0.16153846153846155f;
                                                            }
                                                        }

                                                        else {
                                                            if (x[2] <= 0.9750000238418579) {
                                                                return -0.04461538461538462f;
                                                            }

                                                            else {
                                                                return -0.24898734177215193f;
                                                            }
                                                        }
                                                    }
                                                }

                                                else {
                                                    if (x[2] <= 0.9050000011920929) {
                                                        if (x[3] <= 11.963992595672607) {
                                                            if (x[1] <= 43.54999923706055) {
                                                                return -0.11749999999999997f;
                                                            }

                                                            else {
                                                                return -0.25333333333333335f;
                                                            }
                                                        }

                                                        else {
                                                            if (x[0] <= 21.84999942779541) {
                                                                return -0.3755714285714285f;
                                                            }

                                                            else {
                                                                return -0.1463888888888889f;
                                                            }
                                                        }
                                                    }

                                                    else {
                                                        if (x[0] <= 21.84999942779541) {
                                                            if (x[1] <= 50.10000038146973) {
                                                                return -0.10933823529411761f;
                                                            }

                                                            else {
                                                                return 0.12285714285714287f;
                                                            }
                                                        }

                                                        else {
                                                            if (x[0] <= 21.949999809265137) {
                                                                return 0.10607142857142858f;
                                                            }

                                                            else {
                                                                return -0.007999999999999998f;
                                                            }
                                                        }
                                                    }
                                                }
                                            }

                                            else {
                                                if (x[1] <= 57.89999961853027) {
                                                    if (x[2] <= 1.0850000381469727) {
                                                        if (x[0] <= 21.25) {
                                                            if (x[3] <= 8.76399278640747) {
                                                                return 0.01666666666666666f;
                                                            }

                                                            else {
                                                                return -0.1577777777777778f;
                                                            }
                                                        }

                                                        else {
                                                            if (x[1] <= 41.45000076293945) {
                                                                return 0.055833333333333346f;
                                                            }

                                                            else {
                                                                return 0.3222222222222222f;
                                                            }
                                                        }
                                                    }

                                                    else {
                                                        if (x[0] <= 20.949999809265137) {
                                                            if (x[2] <= 1.1200000047683716) {
                                                                return 0.21555555555555556f;
                                                            }

                                                            else {
                                                                return -0.022380952380952383f;
                                                            }
                                                        }

                                                        else {
                                                            if (x[3] <= 12.113992691040039) {
                                                                return 0.29047619047619044f;
                                                            }

                                                            else {
                                                                return 0.16190476190476186f;
                                                            }
                                                        }
                                                    }
                                                }

                                                else {
                                                    return -0.406f;
                                                }
                                            }
                                        }
                                    }

                                    else {
                                        if (x[3] <= 1.0) {
                                            if (x[0] <= 20.84999942779541) {
                                                if (x[0] <= 19.34999942779541) {
                                                    if (x[0] <= 17.84999942779541) {
                                                        return -0.7999999999999999f;
                                                    }

                                                    else {
                                                        return -0.6117647058823529f;
                                                    }
                                                }

                                                else {
                                                    if (x[2] <= 1.375) {
                                                        return -0.5666666666666668f;
                                                    }

                                                    else {
                                                        return -0.2636363636363636f;
                                                    }
                                                }
                                            }

                                            else {
                                                if (x[1] <= 31.449999809265137) {
                                                    return -0.011111111111111108f;
                                                }

                                                else {
                                                    return -0.07777777777777779f;
                                                }
                                            }
                                        }

                                        else {
                                            if (x[0] <= 19.449999809265137) {
                                                return 0.11666666666666664f;
                                            }

                                            else {
                                                if (x[2] <= 1.4049999713897705) {
                                                    if (x[2] <= 1.2949999570846558) {
                                                        return 0.5692307692307693f;
                                                    }

                                                    else {
                                                        if (x[0] <= 21.34999942779541) {
                                                            if (x[1] <= 33.30000114440918) {
                                                                return 0.17777777777777778f;
                                                            }

                                                            else {
                                                                return 0.27875f;
                                                            }
                                                        }

                                                        else {
                                                            if (x[3] <= 8.76399278640747) {
                                                                return 0.54375f;
                                                            }

                                                            else {
                                                                return 0.33111111111111113f;
                                                            }
                                                        }
                                                    }
                                                }

                                                else {
                                                    if (x[1] <= 27.550000190734863) {
                                                        if (x[0] <= 20.050000190734863) {
                                                            return 0.6888888888888889f;
                                                        }

                                                        else {
                                                            if (x[3] <= 14.76399278640747) {
                                                                return 0.4928571428571428f;
                                                            }

                                                            else {
                                                                return 0.5800000000000001f;
                                                            }
                                                        }
                                                    }

                                                    else {
                                                        if (x[0] <= 20.949999809265137) {
                                                            if (x[2] <= 1.4700000286102295) {
                                                                return 0.2777777777777778f;
                                                            }

                                                            else {
                                                                return 0.40230769230769237f;
                                                            }
                                                        }

                                                        else {
                                                            if (x[1] <= 37.75) {
                                                                return 0.45999999999999996f;
                                                            }

                                                            else {
                                                                return 0.5847826086956522f;
                                                            }
                                                        }
                                                    }
                                                }
                                            }
                                        }
                                    }
                                }

                                else {
                                    if (x[2] <= 1.1150000095367432) {
                                        if (x[0] <= 23.25) {
                                            if (x[2] <= 0.9549999833106995) {
                                                if (x[0] <= 22.65000057220459) {
                                                    if (x[3] <= 13.363992691040039) {
                                                        if (x[3] <= 5.5) {
                                                            if (x[2] <= 0.9150000214576721) {
                                                                return -0.019607843137254898f;
                                                            }

                                                            else {
                                                                return 0.15294117647058825f;
                                                            }
                                                        }

                                                        else {
                                                            if (x[2] <= 0.8799999952316284) {
                                                                return 0.41f;
                                                            }

                                                            else {
                                                                return 0.26000000000000006f;
                                                            }
                                                        }
                                                    }

                                                    else {
                                                        if (x[1] <= 49.95000076293945) {
                                                            if (x[1] <= 23.050000190734863) {
                                                                return 0.1207692307692308f;
                                                            }

                                                            else {
                                                                return -0.14601562500000004f;
                                                            }
                                                        }

                                                        else {
                                                            if (x[2] <= 0.875) {
                                                                return -0.028399999999999998f;
                                                            }

                                                            else {
                                                                return 0.24937500000000004f;
                                                            }
                                                        }
                                                    }
                                                }

                                                else {
                                                    if (x[2] <= 0.8650000095367432) {
                                                        if (x[1] <= 46.10000038146973) {
                                                            if (x[1] <= 41.39999961853027) {
                                                                return 0.06951219512195123f;
                                                            }

                                                            else {
                                                                return -0.12999999999999995f;
                                                            }
                                                        }

                                                        else {
                                                            if (x[1] <= 57.39999961853027) {
                                                                return 0.2647619047619048f;
                                                            }

                                                            else {
                                                                return -0.03333333333333333f;
                                                            }
                                                        }
                                                    }

                                                    else {
                                                        if (x[3] <= 13.313992977142334) {
                                                            if (x[3] <= 5.599999904632568) {
                                                                return 0.16666666666666666f;
                                                            }

                                                            else {
                                                                return 0.4222222222222223f;
                                                            }
                                                        }

                                                        else {
                                                            if (x[2] <= 0.9449999928474426) {
                                                                return 0.1396261682242991f;
                                                            }

                                                            else {
                                                                return -0.11454545454545455f;
                                                            }
                                                        }
                                                    }
                                                }
                                            }

                                            else {
                                                if (x[0] <= 22.25) {
                                                    if (x[1] <= 47.14999961853027) {
                                                        if (x[1] <= 43.05000114440918) {
                                                            if (x[1] <= 32.85000038146973) {
                                                                return 0.04161290322580645f;
                                                            }

                                                            else {
                                                                return 0.19f;
                                                            }
                                                        }

                                                        else {
                                                            return -0.07666666666666667f;
                                                        }
                                                    }

                                                    else {
                                                        return 0.24222222222222223f;
                                                    }
                                                }

                                                else {
                                                    if (x[3] <= 13.313992977142334) {
                                                        if (x[3] <= 1.300000011920929) {
                                                            return 0.09090909090909091f;
                                                        }

                                                        else {
                                                            if (x[0] <= 23.050000190734863) {
                                                                return 0.30390624999999993f;
                                                            }

                                                            else {
                                                                return 0.39499999999999996f;
                                                            }
                                                        }
                                                    }

                                                    else {
                                                        if (x[1] <= 47.20000076293945) {
                                                            if (x[2] <= 1.0950000286102295) {
                                                                return 0.16115853658536583f;
                                                            }

                                                            else {
                                                                return 0.3327586206896551f;
                                                            }
                                                        }

                                                        else {
                                                            if (x[0] <= 22.84999942779541) {
                                                                return 0.3987499999999999f;
                                                            }

                                                            else {
                                                                return 0.2784615384615385f;
                                                            }
                                                        }
                                                    }
                                                }
                                            }
                                        }

                                        else {
                                            if (x[1] <= 41.60000038146973) {
                                                if (x[3] <= -1.300000011920929) {
                                                    return -0.08f;
                                                }

                                                else {
                                                    if (x[2] <= 0.9050000011920929) {
                                                        if (x[0] <= 24.15000057220459) {
                                                            if (x[0] <= 23.65000057220459) {
                                                                return 0.15f;
                                                            }

                                                            else {
                                                                return 0.2357575757575757f;
                                                            }
                                                        }

                                                        else {
                                                            if (x[3] <= 15.599999904632568) {
                                                                return 0.4557142857142857f;
                                                            }

                                                            else {
                                                                return 0.34375000000000006f;
                                                            }
                                                        }
                                                    }

                                                    else {
                                                        if (x[3] <= 13.313992977142334) {
                                                            if (x[2] <= 1.0149999856948853) {
                                                                return 0.3844827586206897f;
                                                            }

                                                            else {
                                                                return 0.5199999999999999f;
                                                            }
                                                        }

                                                        else {
                                                            if (x[1] <= 26.949999809265137) {
                                                                return 0.22803921568627453f;
                                                            }

                                                            else {
                                                                return 0.3766355140186917f;
                                                            }
                                                        }
                                                    }
                                                }
                                            }

                                            else {
                                                if (x[2] <= 0.9850000143051147) {
                                                    if (x[0] <= 24.15000057220459) {
                                                        if (x[1] <= 57.75) {
                                                            if (x[1] <= 52.10000038146973) {
                                                                return 0.33132352941176474f;
                                                            }

                                                            else {
                                                                return 0.518f;
                                                            }
                                                        }

                                                        else {
                                                            if (x[1] <= 59.85000038146973) {
                                                                return 0.20571428571428574f;
                                                            }

                                                            else {
                                                                return 0.3425000000000001f;
                                                            }
                                                        }
                                                    }

                                                    else {
                                                        if (x[3] <= 27.899999618530273) {
                                                            if (x[1] <= 47.39999961853027) {
                                                                return 0.42349999999999993f;
                                                            }

                                                            else {
                                                                return 0.5041666666666665f;
                                                            }
                                                        }

                                                        else {
                                                            return 0.7f;
                                                        }
                                                    }
                                                }

                                                else {
                                                    if (x[2] <= 1.0850000381469727) {
                                                        if (x[1] <= 46.25) {
                                                            if (x[0] <= 23.949999809265137) {
                                                                return 0.716f;
                                                            }

                                                            else {
                                                                return 0.617f;
                                                            }
                                                        }

                                                        else {
                                                            return 0.5584615384615383f;
                                                        }
                                                    }

                                                    else {
                                                        return 0.7185714285714286f;
                                                    }
                                                }
                                            }
                                        }
                                    }

                                    else {
                                        if (x[2] <= 1.3450000286102295) {
                                            if (x[0] <= 23.949999809265137) {
                                                if (x[3] <= -1.300000011920929) {
                                                    return 0.08181818181818183f;
                                                }

                                                else {
                                                    if (x[0] <= 22.84999942779541) {
                                                        if (x[3] <= 8.599999904632568) {
                                                            if (x[1] <= 38.70000076293945) {
                                                                return 0.5188679245283019f;
                                                            }

                                                            else {
                                                                return 0.3818181818181818f;
                                                            }
                                                        }

                                                        else {
                                                            if (x[0] <= 22.75) {
                                                                return 0.3212676056338028f;
                                                            }

                                                            else {
                                                                return 0.4828571428571428f;
                                                            }
                                                        }
                                                    }

                                                    else {
                                                        if (x[2] <= 1.215000033378601) {
                                                            if (x[1] <= 41.20000076293945) {
                                                                return 0.4366666666666667f;
                                                            }

                                                            else {
                                                                return 0.5647368421052632f;
                                                            }
                                                        }

                                                        else {
                                                            if (x[1] <= 36.5) {
                                                                return 0.5672727272727274f;
                                                            }

                                                            else {
                                                                return 0.6794736842105263f;
                                                            }
                                                        }
                                                    }
                                                }
                                            }

                                            else {
                                                if (x[1] <= 42.0) {
                                                    if (x[2] <= 1.274999976158142) {
                                                        if (x[3] <= 8.76399278640747) {
                                                            return 0.5181818181818182f;
                                                        }

                                                        else {
                                                            return 0.6329411764705883f;
                                                        }
                                                    }

                                                    else {
                                                        return 0.7176470588235295f;
                                                    }
                                                }

                                                else {
                                                    return 0.8253846153846154f;
                                                }
                                            }
                                        }

                                        else {
                                            if (x[3] <= 14.51399278640747) {
                                                if (x[2] <= 1.465000033378601) {
                                                    if (x[2] <= 1.3899999856948853) {
                                                        if (x[0] <= 22.75) {
                                                            return 0.5666666666666667f;
                                                        }

                                                        else {
                                                            return 0.74125f;
                                                        }
                                                    }

                                                    else {
                                                        if (x[1] <= 27.199999809265137) {
                                                            return 0.4159999999999999f;
                                                        }

                                                        else {
                                                            if (x[2] <= 1.4300000071525574) {
                                                                return 0.628f;
                                                            }

                                                            else {
                                                                return 0.4636363636363637f;
                                                            }
                                                        }
                                                    }
                                                }

                                                else {
                                                    if (x[0] <= 23.15000057220459) {
                                                        if (x[2] <= 1.5699999928474426) {
                                                            return 0.6569230769230768f;
                                                        }

                                                        else {
                                                            if (x[0] <= 22.550000190734863) {
                                                                return 0.6808333333333333f;
                                                            }

                                                            else {
                                                                return 0.8558333333333333f;
                                                            }
                                                        }
                                                    }

                                                    else {
                                                        return 0.6284615384615384f;
                                                    }
                                                }
                                            }

                                            else {
                                                if (x[0] <= 23.25) {
                                                    if (x[2] <= 1.3849999904632568) {
                                                        return 0.5294117647058824f;
                                                    }

                                                    else {
                                                        if (x[2] <= 1.600000023841858) {
                                                            if (x[1] <= 28.949999809265137) {
                                                                return 0.6869565217391305f;
                                                            }

                                                            else {
                                                                return 0.76f;
                                                            }
                                                        }

                                                        else {
                                                            if (x[0] <= 22.75) {
                                                                return 0.7699999999999999f;
                                                            }

                                                            else {
                                                                return 0.8666666666666667f;
                                                            }
                                                        }
                                                    }
                                                }

                                                else {
                                                    if (x[0] <= 24.15000057220459) {
                                                        if (x[2] <= 1.6050000190734863) {
                                                            if (x[1] <= 29.100000381469727) {
                                                                return 0.7903225806451614f;
                                                            }

                                                            else {
                                                                return 0.8636363636363636f;
                                                            }
                                                        }

                                                        else {
                                                            return 0.9428571428571428f;
                                                        }
                                                    }

                                                    else {
                                                        return 1.011111111111111f;
                                                    }
                                                }
                                            }
                                        }
                                    }
                                }
                            }
                        }

                        else {
                            if (x[2] <= 0.5249999761581421) {
                                if (x[0] <= 25.65000057220459) {
                                    if (x[2] <= 0.3449999988079071) {
                                        if (x[0] <= 24.65000057220459) {
                                            return -0.5566666666666666f;
                                        }

                                        else {
                                            if (x[1] <= 40.60000038146973) {
                                                return -0.039999999999999994f;
                                            }

                                            else {
